{
  "input_nodes": 5,
  "hidden_nodes": 8,
  "output_nodes": 2,
  "weights_ih": {
    "rows": 8,
    "cols": 5,
    "data": [
      [
        -0.9358359216490142,
        -0.9096560247155951,
        -0.1908392792129911,
        -0.1819593764684299,
        0.9611404495571294
      ],
      [
        -0.20112183384030358,
        -0.8021603505191011,
        0.6377571242981177,
        0.9052984256933008,
        -0.8662793371725155
      ],
      [
        -0.9043389582304577,
        0.5544895427451134,
        -0.5780957520104935,
        -0.336139867604802,
        -0.775057842229461
      ],
      [
        -0.5445932131753519,
        0.8432138015473165,
        -0.783654953526139,
        -0.5316647640323597,
        -0.4800760634789839
      ],
      [
        -0.43496281749804777,
        -0.5095126101086533,
        -1.050883423540946,
        1.052070289799307,
        -0.842528441924947
      ],
      [
        0.04858006316298863,
        0.7211748014261898,
        -0.28694437618828456,
        -0.17784322220978144,
        0.4774268442955379
      ],
      [
        -0.2333326387021795,
        -0.45809427952072435,
        -0.6933236632233029,
        -0.4079135121480618,
        0.6619373392230825
      ],
      [
        0.8354746201917037,
        0.7624009198111248,
        0.12182206749413227,
        0.6798614259078775,
        0.6366241104995363
      ]
    ]
  },
  "weights_ho": {
    "rows": 2,
    "cols": 8,
    "data": [
      [
        -0.6034290887370466,
        0.9478997979193768,
        0.021951487736346934,
        -0.8679733483197425,
        -0.3766051134458714,
        -0.5197903242730573,
        0.661304377961345,
        0.9063455484719478
      ],
      [
        -0.07725178076293113,
        0.7588545230215763,
        -0.3664840877043167,
        0.5835533407510769,
        0.9675761726869143,
        0.8938339084867557,
        0.7068212834220562,
        -0.9202457586540371
      ]
    ]
  },
  "bias_h": {
    "rows": 8,
    "cols": 1,
    "data": [
      [
        -0.9374485362470248
      ],
      [
        -0.03633993064457837
      ],
      [
        0.584826078976144
      ],
      [
        0.14649798531454242
      ],
      [
        -0.725421555597599
      ],
      [
        0.23594564623611913
      ],
      [
        0.5555104471518398
      ],
      [
        -0.8329091321286988
      ]
    ]
  },
  "bias_o": {
    "rows": 2,
    "cols": 1,
    "data": [
      [
        0.6014641290832786
      ],
      [
        0.09761129133066815
      ]
    ]
  },
  "learning_rate": 0.1,
  "activation_function": {}
}
