{
  "input_nodes": 5,
  "hidden_nodes": 8,
  "output_nodes": 2,
  "weights_ih": {
    "rows": 8,
    "cols": 5,
    "data": [
      [
        0.6826262100149638,
        -0.4961556417657451,
        -0.9638598960347466,
        -0.6273015208069431,
        0.41393111985180864
      ],
      [
        -0.8309312522597774,
        -0.5318519794551564,
        0.031221374125667306,
        -0.7777194557727829,
        0.5987351377558021
      ],
      [
        0.09849189244589929,
        0.16373871747683774,
        0.09268636573779734,
        -0.2730329747448784,
        1.1420437475140024
      ],
      [
        0.31848404888354837,
        0.3775785767925671,
        -0.04867499106523531,
        0.5027077677631772,
        -0.3636151246283642
      ],
      [
        0.08366179135687335,
        0.2498362278502146,
        -0.49747457507943765,
        0.09301612349191224,
        0.6944416464815327
      ],
      [
        0.6596148883835835,
        0.6352563800223487,
        -0.6773546831189479,
        0.8949198624418847,
        -0.6661894930894432
      ],
      [
        0.8979373184311548,
        -0.9332258960056583,
        0.3470071167880079,
        0.5583704707397952,
        0.38614461900846986
      ],
      [
        0.20903524428444478,
        0.012668788362900842,
        0.561463092620468,
        0.7029124678225133,
        -1.1729928682741437
      ]
    ]
  },
  "weights_ho": {
    "rows": 2,
    "cols": 8,
    "data": [
      [
        0.8579985409164275,
        0.2626404773907976,
        -0.10897119390620295,
        0.869560975542297,
        -0.2765078652996018,
        -0.6121356431210058,
        0.6812355339929741,
        0.45927233026583913
      ],
      [
        0.1645426406893707,
        0.2714372900584221,
        0.5319547235995268,
        0.8481183214830429,
        0.601911359662127,
        -0.8241751833168942,
        -0.45582598545624786,
        1.1141441370411274
      ]
    ]
  },
  "bias_h": {
    "rows": 8,
    "cols": 1,
    "data": [
      [
        -0.8362977698037661
      ],
      [
        -0.919670110635058
      ],
      [
        -0.8212846065645008
      ],
      [
        -0.7359162637261698
      ],
      [
        -0.8038628149186635
      ],
      [
        -0.7005032684507271
      ],
      [
        -0.7707374630820195
      ],
      [
        -0.0888529240991574
      ]
    ]
  },
  "bias_o": {
    "rows": 2,
    "cols": 1,
    "data": [
      [
        -0.07477015863752139
      ],
      [
        -0.20191964896082748
      ]
    ]
  },
  "learning_rate": 0.1,
  "activation_function": {}
}
